{"HiddenLayer":[0.5731125081597147,0.7350945735767127,0.14142028524457922,0.732297496100045,0.7519407679562545,0.20149003587055533,0.7934358264138456,0.010170960584172528,0.7555470958887842,0.29189597129522954,0.399426428898911,0.555140682372779,0.4120135881723764,0.9642111835649045,0.02256935456330295,0.9567197499891479,1],"InputLayer":[0.4,0,1,1],"OutputLayer":[0.00033671072507016975,0.9934946591427944,0.004759514801255056,0.00009112601668940948],"WeightHidden":[[4.012595376114905,0.2900336942217018,-1.4870016524466305,0.17653577286390992],[-5.748840693334297,-1.2122495224205398,2.1958507704885606,1.1243112720628994],[-10.534995277779064,-2.762988900435338,2.9026270140259323,-0.4922049583922605],[-0.397537165945203,-0.5775323598472908,-0.22428343358994085,1.3896079596029658],[0.8555913978020079,0.25471596011560105,0.37600005001093556,0.3907520934876951],[-7.516777371587402,-1.9433520000841018,2.1316446801311035,-0.501969728078078],[6.821690250982775,2.8241294783891573,-2.1254063474859755,0.7425200154701378],[2.1723263577907974,0.3906810590265662,-6.717468135445101,1.270541014884898],[2.6635885026854167,1.3408971735898083,-0.9409300311968725,1.0039264268316783],[-0.10620643312628074,-1.1212743790850452,-0.29982180344478615,-0.5438878092781652],[-1.8017390609272907,0.08507999065378069,-0.5200014664580043,0.8328411401897522],[-0.6207185110775697,0.1496555946291274,-0.009573359589151282,0.47931687592089],[-1.675377521189632,-0.4068987833288745,1.2808813958411214,-0.9663890310843253],[-1.074569794937676,-0.4517822758392501,4.8894524466302975,-1.1659477761116595],[16.77847955029344,3.9084572123678942,-6.02960272171017,-4.450120955902995],[-1.2906827945216213,-0.1234317458201554,4.690293890927533,-1.0782059401172335],[-0.18373112069717035,0.6295714322644006,-0.8717533600050602,-0.8940694204752935]],"WeightOutput":[[1.4008324885148924,-5.369330541502788,-3.565528023992104,-2.232565188425779,-1.3701591258904384,-2.9865582165809355,-0.9257560221910156,-9.015432943305075,-0.8326783570532178,-0.6718871674572497,-2.218824778032038,-2.091289493188861,-1.645589160116675,3.4529811690415615,11.070720556093642,3.5011989371760084,-3.6328612206775515],[-0.1300109625379778,1.9442387820845524,-8.711427304280601,0.39144119693408574,-0.9404840794475545,-5.309759059675965,5.0265310426597,-2.5693513617348334,1.7397213560617448,0.9006736228223079,1.0763960163877258,-0.9007875042045883,-1.3066053058321672,1.5210985602294207,-14.935362634259247,0.19204620938039704,0.15206133674024389],[-3.5078091255141457,1.7144109179486755,5.9310616364431,0.21145780293269945,-1.3448496592907169,4.666901261089174,-4.831856927654208,-0.6742562371802825,-2.4252174517933764,0.9537202342147274,1.294340343108815,0.3407376133908684,1.16324244464132,-0.3281576968602485,-3.7206479264395367,0.1992542690989259,-1.096533298435531],[1.3187611411481992,-2.0570564378028,-0.8855582536829569,-0.3789940557513925,-1.3132463139056747,0.21896179565419074,1.046851075591077,4.77786613229361,0.30494430802674616,0.5177934499483435,0.7918508297903281,-0.10470488628743735,-0.884266674630633,-3.7410244790107727,1.655714645197519,-3.8406478610393515,-1.1110906469494999]],"ErrOutput":[0.00033671072507016975,-0.006505340857205555,0.004759514801255056,0.00009112601668940948],"ErrHidden":[-0.0000734479228699939,-0.00004371741994411803,0.0004995700005022379,-0.000011946251395607377,0.000009056203086474472,0.0003281238460393989,-0.000320367090446593,0.0000918428989927391,-0.0001279134962040726,-0.000016437973147774666,-0.000016319735429288235,0.00004531723888030753,0.0000809669854044871,-0.00007099088553089439,0.0005453305481167075,-0.0000032167772971419026,0],"LastChangeHidden":[[-0.0000020282982925381068,-4.6041927249568537e-7,-0.000004953382147694163,-0.000004952760924346995],[3.153372928296468e-7,0.0000023201980673878116,1.9833063202519501e-7,1.9191768214262277e-7],[0.000006059653938269222,-1.1868330765150039e-8,0.000015152585860033397,0.000015152650875030462],[2.556116480362702e-7,9.747405688621963e-7,3.918417901237986e-7,3.8924970850238056e-7],[2.5625809971934573e-7,1.745674878499823e-7,5.96308139822786e-7,5.968676151385978e-7],[0.000005272920602224932,-1.2146647561269474e-8,0.000013185706397807444,0.000013185961120260261],[-0.000005224039334683012,5.244667225213651e-8,-0.000013074018313542982,-0.000013074226292752661],[2.0526508465318733e-7,2.2523358044213053e-7,4.565197180132946e-7,4.563815388643746e-7],[-0.000002269043291068591,1.8525040987605404e-7,-0.0000057200659875259,-0.000005721017212900387],[-2.3009841731405515e-7,2.1796617261504962e-7,-6.305401977365241e-7,-6.314418109314045e-7],[1.7964032611931952e-7,0.0000011368354835050052,1.6055336829343088e-7,1.5810635425520741e-7],[0.0000014189228025238363,5.981834733763026e-7,0.0000033958387683110697,0.000003396049661909413],[0.0000020849830362496365,2.4771763073286903e-7,0.000005149589568268008,0.000005151447940415317],[-3.6869390386692337e-7,-2.46946267732904e-7,-8.595096205828828e-7,-8.593716900643033e-7],[-8.474423975622529e-7,-0.000004076056965890085,-0.0000010800339543266184,-0.0000010685618880875045],[-1.648998803255551e-7,-3.025282545110274e-7,-3.359982663331321e-7,-3.3581612491599516e-7],[0,0,0,0]],"LastChangeOutput":[[-0.0000011787931188065326,-4.953931014343427e-7,-1.591379824920339e-9,-9.549453652155818e-7,-0.0000013057919930559075,-2.1045011810269194e-8,-0.0000016029410147253087,-2.9854778153407276e-8,-0.000001517171463361691,-1.837362041798545e-7,-6.040943245749071e-7,-9.28177658776063e-7,-4.512944592972679e-7,-0.0000015109094521966652,-0.0000014169127723148416,-0.0000015208235420461393,-0.0000016095074607081364],[-0.000005240247140607498,-0.000007388654725664222,-0.0000014828458361585907,-0.000007058228800435233,-0.000007033102507749576,-0.0000021004494614633626,-0.000007274245999438965,-8.712389857971771e-8,-0.000006932883166616888,-0.0000029424594197503306,-0.0000037965397143887863,-0.000005216783504746436,-0.000004026378033363177,-0.000009126214200890124,6.931473220766343e-7,-0.000009041150002909667,-0.000009437353480532303],[0.0000032302323037547987,0.0000041432100937501295,7.970854600125955e-7,0.000004127445331713796,0.000004238161536288489,0.0000011356563868383415,0.000004472041328160489,5.732657047780206e-8,0.000004258488778198892,0.0000016452112533727574,0.000002251286329262044,0.0000031289379703631325,0.0000023222303114030144,0.000005434580313345256,1.272086643296468e-7,0.000005392356459660783,0.000005636296810945299],[5.783654010394016e-8,2.6231187247891595e-8,5.708404667494655e-10,4.7710283928181995e-8,6.473153498602701e-8,1.7084669059559383e-9,7.884259438786561e-8,1.232587174693295e-9,7.462769384079605e-8,9.667496537823428e-9,2.9724117104482437e-8,4.5902907172564194e-8,2.315370067184046e-8,7.533798457126745e-8,6.705026797013365e-8,7.57698751430754e-8,7.986995141229987e-8]],"Regression":false,"Rate1":0.25,"Rate2":0.1}
