{"HiddenLayer":[0.9739783949691002,0.8782179410252371,0.7105134229195552,0.7112149804764496,0.010258285852159477,0.5204988794115782,0.9979591394078231,0.24911455851187586,0.11239921492898346,0.03427912889150141,0.03199686320357829,0.00010281653895076027,0.8092967293966585,0.043877498563913014,1],"InputLayer":[-1,-1,1],"OutputLayer":[0.996715969824143,0.0033230582711649397],"WeightHidden":[[-3.6875574312430532,3.7044328232711794,3.6393397333501825],[-2.067316097714656,-1.9020511661590773,-1.99370205055977],[0.8739673803327871,-0.9422979604635678,0.8295498270384933],[-1.0223914661879179,-0.7271717623752921,-0.8482688220414227],[1.4476549251223243,1.609567158699079,-1.512136072111643],[0.28501911986950546,-0.01070400808398153,0.3563567893095316],[-1.9911834690552657,-2.154967519794309,2.0461898266066063],[1.208325060189394,1.007763223018991,1.1127456635266524],[-2.0026395162878234,1.975943184997942,-2.093164601014693],[-3.2929691722309693,3.275528879864379,-3.3557808674986638],[1.1518907943105354,1.1325705997122142,-1.1251357305331855],[2.9974926978857366,3.135016496619607,-3.0499524192161287],[-1.5465818801599642,-1.348336619715577,-1.4494683033370064],[3.1509616002232503,3.015084694466419,3.084559047413212],[-0.11646454482863611,-0.8531886574107991,-0.8156953946482334]],"WeightOutput":[[6.094513046233682,2.118610819891346,1.1604018209411464,0.26361692668582404,0.8884208788922446,-0.6573564159252666,-2.525142662232986,-0.8409161988159237,-1.826426623274242,-4.496863713254817,1.3584786374860525,4.030531480240953,1.6374659954694257,-3.9656398777421136,-0.8662090158716436],[-5.832407004474283,-1.8803033188810736,0.21718599467130723,-1.0551426727648552,-1.8532636925098804,-0.7297256258847399,1.9010998006314581,0.7391369044965937,2.168991427581461,4.7622880611904215,-0.33990383398953233,-4.35110761712008,-0.9479510390781777,4.330403407252391,0.7234490941508175]],"ErrOutput":[-0.003284030175856989,0.0033230582711649397],"ErrHidden":[-0.00012970410905593747,-0.00004346847759654963,-0.00001008326649020439,-0.00001444661314574166,-0.000029947076765839318,-9.651300409520345e-7,0.00004806746325833169,0.000017174351309715322,0.00004350502861703207,0.00010075259361279627,-0.000018343862006860884,-0.00009121431647366154,-0.000028034957486651776,0.00009028891113764816,0],"LastChangeHidden":[[7.483965251879679e-7,7.315669891358044e-7,-8.9540861017108e-7],[0.0000011700763612403754,0.000001148936039679865,-0.000001152435153735244],[4.6414329847842493e-7,4.6143474354018126e-7,-5.720838722981808e-7],[7.247928686293274e-7,7.108015760006583e-7,-7.575048839588491e-7],[-2.5384130463856503e-8,-4.6434621826039004e-8,-1.7533011517035316e-7],[5.4671931583342164e-8,5.333980592585246e-8,-6.568153746232206e-8],[8.443483011079246e-8,1.0685844021030315e-7,1.310244146699908e-7],[-7.960232790549845e-7,-7.809135710647708e-7,8.08918302163949e-7],[-9.772061295477229e-7,-9.787602544497856e-7,0.0000011910305926364099],[-7.500200334857636e-7,-7.51598178682481e-7,9.162004542496992e-7],[6.574912133510421e-8,4.743389604271662e-8,-2.1691775071558675e-7],[-8.695474803734198e-8,-1.0517493557396943e-7,-8.973202711033982e-8],[0.000001082626946835033,0.0000010627648403237626,-0.0000010789026111630632],[-9.555778071746297e-7,-9.380772588737161e-7,9.366919126271442e-7],[0,0,0]],"LastChangeOutput":[[-0.000002882519952322705,-0.000002357511625750432,-0.0000020674205027527962,-0.0000019222086280544176,-2.48683706100187e-7,-0.0000015567379533090364,-0.0000026822849969422965,-9.088040678125049e-7,-3.294573059482132e-7,-9.901028601708951e-8,-2.869151043730416e-7,-2.6165785087787015e-7,-0.000002173109682836607,-3.6077609838439574e-7,-0.0000029292028036962983],[0.000002955024544753643,0.000002413739846433346,0.0000021188444541992324,0.0000019682275098091793,2.57660253040636e-7,0.0000015960184838186377,0.0000027462447591028657,9.337359469864188e-7,3.377422560684225e-7,1.015169423885608e-7,2.9651633040095245e-7,2.71506247693288e-7,0.0000022249449031733305,3.7266664751630896e-7,0.0000030023807600424943]],"Regression":false,"Rate1":0.25,"Rate2":0.1}
se,"Rate1":0.25,"Rate2":0.1}
0.25,"Rate2":0.1}
.1}
.1}
ate1":0.25,"Rate2":0.1}
Rate2":0.1}
,"Rate2":0.1}

}
